digraph Tree {
node [shape=box] ;
0 [label="CHK_ACCT_3 <= 0.5\nentropy = 1.0\nsamples = 750\nvalue = [375.0, 375.0]"] ;
1 [label="DURATION <= 0.2721\nentropy = 0.9476\nsamples = 453\nvalue = [185.7143, 321.6667]"] ;
0 -> 1 [labeldistance=2.5, labelangle=45, headlabel="True"] ;
2 [label="AMOUNT <= 0.0099\nentropy = 0.9948\nsamples = 276\nvalue = [130.7143, 155.0]"] ;
1 -> 2 ;
3 [label="entropy = 0.0\nsamples = 9\nvalue = [6.4286, 0.0]"] ;
2 -> 3 ;
4 [label="AMOUNT <= 0.0569\nentropy = 0.9913\nsamples = 267\nvalue = [124.2857, 155.0]"] ;
2 -> 4 ;
5 [label="GUARANTOR <= 0.5\nentropy = 0.8974\nsamples = 93\nvalue = [34.2857, 75.0]"] ;
4 -> 5 ;
6 [label="entropy = 0.849\nsamples = 83\nvalue = [27.8571, 73.3333]"] ;
5 -> 6 ;
7 [label="entropy = 0.7335\nsamples = 10\nvalue = [6.4286, 1.6667]"] ;
5 -> 7 ;
8 [label="EMPLOYMENT_3 <= 0.5\nentropy = 0.9975\nsamples = 174\nvalue = [90.0, 80.0]"] ;
4 -> 8 ;
9 [label="entropy = 0.9997\nsamples = 149\nvalue = [73.5714, 76.6667]"] ;
8 -> 9 ;
10 [label="entropy = 0.6547\nsamples = 25\nvalue = [16.4286, 3.3333]"] ;
8 -> 10 ;
11 [label="CHK_ACCT_2 <= 0.5\nentropy = 0.8083\nsamples = 177\nvalue = [55.0, 166.6667]"] ;
1 -> 11 ;
12 [label="SAV_ACCT_0 <= 0.5\nentropy = 0.7543\nsamples = 158\nvalue = [44.2857, 160.0]"] ;
11 -> 12 ;
13 [label="AMOUNT <= 0.067\nentropy = 0.9396\nsamples = 55\nvalue = [22.1429, 40.0]"] ;
12 -> 13 ;
14 [label="entropy = 0.0\nsamples = 5\nvalue = [0.0, 8.3333]"] ;
13 -> 14 ;
15 [label="entropy = 0.9773\nsamples = 50\nvalue = [22.1429, 31.6667]"] ;
13 -> 15 ;
16 [label="DURATION <= 0.5809\nentropy = 0.6241\nsamples = 103\nvalue = [22.1429, 120.0]"] ;
12 -> 16 ;
17 [label="entropy = 0.7309\nsamples = 80\nvalue = [21.4286, 83.3333]"] ;
16 -> 17 ;
18 [label="entropy = 0.1364\nsamples = 23\nvalue = [0.7143, 36.6667]"] ;
16 -> 18 ;
19 [label="NUM_DEPENDENTS <= 1.5\nentropy = 0.9605\nsamples = 19\nvalue = [10.7143, 6.6667]"] ;
11 -> 19 ;
20 [label="JOB_3 <= 0.5\nentropy = 0.7905\nsamples = 17\nvalue = [10.7143, 3.3333]"] ;
19 -> 20 ;
21 [label="entropy = 0.57\nsamples = 16\nvalue = [10.7143, 1.6667]"] ;
20 -> 21 ;
22 [label="entropy = -0.0\nsamples = 1\nvalue = [0.0, 1.6667]"] ;
20 -> 22 ;
23 [label="entropy = -0.0\nsamples = 2\nvalue = [0.0, 3.3333]"] ;
19 -> 23 ;
24 [label="OTHER_INSTALL <= 0.5\nentropy = 0.7598\nsamples = 297\nvalue = [189.2857, 53.3333]"] ;
0 -> 24 [labeldistance=2.5, labelangle=-45, headlabel="False"] ;
25 [label="AGE <= 0.2411\nentropy = 0.6025\nsamples = 247\nvalue = [164.2857, 28.3333]"] ;
24 -> 25 ;
26 [label="DURATION <= 0.4485\nentropy = 0.8393\nsamples = 103\nvalue = [63.5714, 23.3333]"] ;
25 -> 26 ;
27 [label="CO-APPLICANT <= 0.5\nentropy = 0.7335\nsamples = 90\nvalue = [57.8571, 15.0]"] ;
26 -> 27 ;
28 [label="entropy = 0.6567\nsamples = 87\nvalue = [57.1429, 11.6667]"] ;
27 -> 28 ;
29 [label="entropy = 0.6723\nsamples = 3\nvalue = [0.7143, 3.3333]"] ;
27 -> 29 ;
30 [label="EMPLOYMENT_1 <= 0.5\nentropy = 0.9748\nsamples = 13\nvalue = [5.7143, 8.3333]"] ;
26 -> 30 ;
31 [label="entropy = 0.9495\nsamples = 10\nvalue = [5.7143, 3.3333]"] ;
30 -> 31 ;
32 [label="entropy = -0.0\nsamples = 3\nvalue = [0, 5]"] ;
30 -> 32 ;
33 [label="AGE <= 0.6161\nentropy = 0.2748\nsamples = 144\nvalue = [100.7143, 5.0]"] ;
25 -> 33 ;
34 [label="entropy = -0.0\nsamples = 120\nvalue = [85.7143, 0.0]"] ;
33 -> 34 ;
35 [label="NUM_CREDITS <= 0.1667\nentropy = 0.8113\nsamples = 24\nvalue = [15.0, 5.0]"] ;
33 -> 35 ;
36 [label="entropy = 0.0\nsamples = 13\nvalue = [9.2857, 0.0]"] ;
35 -> 36 ;
37 [label="entropy = 0.9968\nsamples = 11\nvalue = [5.7143, 5.0]"] ;
35 -> 37 ;
38 [label="FURNITURE <= 0.5\nentropy = 1.0\nsamples = 50\nvalue = [25.0, 25.0]"] ;
24 -> 38 ;
39 [label="AGE <= 0.4554\nentropy = 0.9911\nsamples = 43\nvalue = [20.0, 25.0]"] ;
38 -> 39 ;
40 [label="USED_CAR <= 0.5\nentropy = 0.9489\nsamples = 33\nvalue = [13.5714, 23.3333]"] ;
39 -> 40 ;
41 [label="entropy = 0.8985\nsamples = 29\nvalue = [10.7143, 23.3333]"] ;
40 -> 41 ;
42 [label="entropy = 0.0\nsamples = 4\nvalue = [2.8571, 0.0]"] ;
40 -> 42 ;
43 [label="PRESENT_RESIDENT <= 1.5\nentropy = 0.7335\nsamples = 10\nvalue = [6.4286, 1.6667]"] ;
39 -> 43 ;
44 [label="entropy = 0.0\nsamples = 1\nvalue = [0.0, 1.6667]"] ;
43 -> 44 ;
45 [label="entropy = -0.0\nsamples = 9\nvalue = [6.4286, 0.0]"] ;
43 -> 45 ;
46 [label="entropy = 0.0\nsamples = 7\nvalue = [5, 0]"] ;
38 -> 46 ;
}